# M [Msun]               b(z=1.0)                 b(z=2.0)                 b(z=3.0)                 b(z=4.0)                 
1.000000000000000000e+09 2.471282258334012827e+00 3.245341785909273025e+00 3.919179995220781976e+00 4.220821623732291528e+00
1.122018454301965237e+09 2.237313679701535829e+00 2.940909931384464659e+00 3.543901714509515966e+00 3.797580223174177760e+00
1.258925411794171095e+09 2.025746552151194368e+00 2.665180686335425264e+00 3.204251801223482410e+00 3.415740583156135823e+00
1.412537544622761250e+09 1.834410826613119605e+00 2.415422535995272124e+00 2.896846142998170670e+00 3.071310616773965663e+00
1.584893192461123943e+09 1.661347022960727449e+00 2.189164651219389857e+00 2.618627588022151453e+00 2.760681721682570089e+00
1.778279410038937330e+09 1.504789349240329699e+00 1.984175893633326471e+00 2.366824755281409676e+00 2.480583847209422377e+00
1.995262314968899250e+09 1.363132400077577300e+00 1.798423639657214412e+00 2.138916875081099622e+00 2.228057064193759818e+00
2.238721138568364620e+09 1.234960051591594832e+00 1.630112688880181127e+00 1.932674014581573063e+00 2.000464583423025466e+00
2.511886431509612560e+09 1.118956337942641932e+00 1.477569899784658913e+00 1.746017716470734227e+00 1.795367072384629337e+00
2.818382931264495850e+09 1.013946097083253228e+00 1.339298898451852127e+00 1.577086984346196763e+00 1.610578672275947421e+00
3.162277660168431282e+09 9.188776308115497171e-01 1.213957918690959703e+00 1.424212401417418006e+00 1.444138633424237206e+00
3.548133892335818291e+09 8.327891717500910396e-01 1.100317480216147947e+00 1.285863566953037385e+00 1.294254501526289181e+00
3.981071705535050392e+09 7.548299041856121327e-01 9.972882442192326780e-01 1.160683222728024377e+00 1.159335449069508694e+00
4.466835921509727478e+09 6.842123173768764888e-01 9.038592355228063369e-01 1.047411889465107215e+00 1.037910551151949967e+00
5.011872336272837639e+09 6.202377978376202305e-01 8.191323187741986755e-01 9.449302556771168593e-01 9.286707967844716194e-01
5.623413251903628349e+09 5.622724610572435999e-01 7.422908952499598367e-01 8.522179206385450678e-01 8.304282791423337473e-01
6.309573444802096367e+09 5.097369291599224139e-01 6.725867534834777395e-01 7.683440037168181025e-01 7.420997882508955090e-01
7.079457843841575623e+09 4.621232262545555414e-01 6.093635366557695887e-01 6.924870417075923434e-01 6.627292368058668171e-01
7.943282347243047714e+09 4.189589347927232810e-01 5.520085333506982161e-01 6.238834306052685186e-01 5.914322526342591368e-01
8.912509381337730408e+09 3.798169804800772265e-01 4.999672099927425228e-01 5.618406963492174055e-01 5.274077808991590732e-01
1.000000000000032806e+10 3.443222034099631679e-01 4.527521168580999067e-01 5.057497189523294523e-01 4.699512466876702432e-01
1.122018454302001953e+10 3.121260084616525043e-01 4.099082377196389126e-01 4.550423849130754150e-01 4.184086456635244811e-01
1.258925411794212341e+10 2.829166306038243817e-01 3.710285677765212675e-01 4.092104473503881401e-01 3.721958570580562453e-01
1.412537544622807503e+10 2.564116720243134750e-01 3.357438755074991232e-01 3.677927273185669921e-01 3.307838876257393479e-01
1.584893192461175728e+10 2.323581871727042614e-01 3.037223333815042281e-01 3.303747412292551422e-01 2.936984324185447637e-01
1.778279410038995361e+10 2.105255646858494867e-01 2.746611668899043845e-01 2.965783962461761569e-01 2.605083157116787618e-01
1.995262314968964767e+10 1.907069114989474456e-01 2.482880979757025042e-01 2.660636245523511079e-01 2.308262701045638021e-01
2.238721138568438339e+10 1.727083391226459097e-01 2.243475054166983729e-01 2.385121265896781584e-01 2.042935420991175421e-01
2.511886431509695435e+10 1.563606275116166955e-01 2.026158797511260490e-01 2.136449171286244897e-01 1.805936762165517850e-01
2.818382931264587784e+10 1.415124737946937272e-01 1.828930402303375335e-01 1.912120940377282363e-01 1.594454605796555846e-01
3.162277660168534470e+10 1.280224855811426532e-01 1.649908429922522235e-01 1.709795209785524017e-01 1.405870712564385450e-01
3.548133892335934448e+10 1.157633599209797332e-01 1.487423228449915313e-01 1.527392216312352113e-01 1.237850928321244381e-01
3.981071705535180664e+10 1.046221987162459927e-01 1.339951796195421319e-01 1.363017292806947556e-01 1.088298827376857902e-01
4.466835921509872437e+10 9.449418338430640163e-02 1.206104278429744325e-01 1.214944342722943244e-01 9.553028181975470323e-02
5.011872336273001099e+10 8.528590134797502109e-02 1.084633495370911083e-01 1.081624073204695002e-01 8.371550013872401663e-02
5.623413251903813934e+10 7.691253905875575225e-02 9.744048557122481080e-02 9.616491164533828850e-02 7.323127728708105078e-02
6.309573444802304077e+10 6.929650409108785436e-02 8.743798630835358798e-02 8.537339163423612876e-02 6.393768539805431972e-02
7.079457843841807556e+10 6.236841305942349839e-02 7.836269123075516319e-02 7.567261167714023351e-02 5.570974415618051845e-02
7.943282347243309021e+10 5.606503911803493306e-02 7.012952159104768324e-02 6.695756330365150444e-02 4.843434343649400536e-02
8.912509381338021851e+10 5.032892130717259854e-02 6.266139435037601513e-02 5.913321826516403784e-02 4.200989186463519043e-02
1.000000000000065460e+11 4.510853599020676202e-02 5.588858445808646269e-02 5.211370347551901039e-02 3.634501843975105478e-02
1.122018454302038727e+11 4.035666845585367951e-02 4.974744143165390348e-02 4.582090518228640330e-02 3.135714613034167042e-02
1.258925411794253693e+11 3.603037913733701109e-02 4.417990084663300093e-02 4.018374442391720730e-02 2.697215269933220250e-02
1.412537544622853394e+11 3.209078758399522280e-02 3.913332402660311266e-02 3.513797058787623828e-02 2.312332114569843472e-02
1.584893192461227417e+11 2.850306706344053406e-02 3.456046108442305947e-02 3.062591626187467428e-02 1.975118307679321616e-02
1.778279410039053650e+11 2.523536764470276153e-02 3.041806207616948657e-02 2.659503237237475365e-02 1.680250711378246387e-02
1.995262314969029846e+11 2.225857683663555464e-02 2.666656537993123896e-02 2.299745193384842776e-02 1.422796006844685365e-02
2.238721138568511963e+11 1.954661210415417280e-02 2.327044503918766771e-02 1.979024365078973016e-02 1.198567500970942022e-02
2.511886431509777527e+11 1.707548102229026338e-02 2.019702050442025512e-02 1.693418843610287189e-02 1.003653961541205522e-02
2.818382931264680176e+11 1.482360030036813589e-02 1.741683851297675528e-02 1.439396999512089666e-02 8.346123982559940091e-03
3.162277660168638306e+11 1.277138711478536734e-02 1.490314487994704937e-02 1.213767812546369222e-02 6.883601964667850417e-03
3.548133892336050415e+11 1.090087664787779166e-02 1.263139119002775444e-02 1.013621377329912594e-02 5.621408448552419647e-03
3.981071705535311279e+11 9.195943682610171338e-03 1.057950301547782787e-02 8.363496333257664297e-03 4.535004435339015302e-03
4.466835921510017700e+11 7.641867198454743194e-03 8.727316422550717226e-03 6.795846022325770924e-03 3.602552675004715935e-03
5.011872336273165283e+11 6.225119520396312292e-03 7.056315229916514283e-03 5.411707927388360526e-03 2.804528114495559443e-03
5.623413251903996582e+11 4.933682407226516395e-03 5.550001032973473497e-03 4.191877315505291267e-03 2.123750557381084200e-03
6.309573444802510986e+11 3.756386224484774099e-03 4.193025727167207055e-03 3.118782536379837312e-03 1.544868567937642467e-03
7.079457843842039795e+11 2.683058811579479720e-03 2.971493191080238835e-03 2.176544733928745343e-03 1.054288081837544133e-03
7.943282347243570557e+11 1.704674559860221757e-03 1.872964868754271612e-03 1.351040232415906799e-03 6.401101944662053412e-04
8.912509381338315430e+11 8.128535242307014831e-04 8.859439096941173824e-04 6.293872261121053000e-04 2.917735595048554778e-04
1.000000000000098022e+12 -6.697518251584144651e-16 -7.239327920402856885e-16 -5.062991507920673471e-16 -2.295283574773855314e-16
1.122018454302075439e+12 -7.407895299176615617e-04 -7.943457450387750437e-04 -5.475392252251679330e-04 -2.433404965510471446e-04
1.258925411794294922e+12 -1.415817991271539882e-03 -1.505742672193662729e-03 -1.022620891835413154e-03 -4.453714111015948931e-04
1.412537544622899902e+12 -2.030818739921603361e-03 -2.142054095342563712e-03 -1.433674602079361860e-03 -6.123011461908979200e-04
1.584893192461279785e+12 -2.591006368153595581e-03 -2.710431674925201789e-03 -1.788266550001988992e-03 -7.495298343899439372e-04
1.778279410039111572e+12 -3.101175480163635700e-03 -3.217428506860817248e-03 -2.093207999243082949e-03 -8.617431319436339625e-04
1.995262314969094727e+12 -3.565618290408712702e-03 -3.668926481478760378e-03 -2.354536329597883230e-03 -9.529799582519089861e-04
2.238721138568584961e+12 -3.988300080509534114e-03 -4.070342368693987897e-03 -2.577706501352213572e-03 -1.026717319696255053e-03
2.511886431509859375e+12 -4.372869056622255210e-03 -4.426629112316385860e-03 -2.767586569743971017e-03 -1.085941299862237027e-03
2.818382931264771973e+12 -4.722588734087220484e-03 -4.742234189275031098e-03 -2.928483439311974773e-03 -1.133188203851252752e-03
3.162277660168742188e+12 -5.040484558726191638e-03 -5.021254872785796929e-03 -3.064261490506135690e-03 -1.170622472068092584e-03
3.548133892336166504e+12 -5.329259512868653181e-03 -5.267343468958195912e-03 -3.178281711460831903e-03 -1.200045584149755104e-03
3.981071705535441406e+12 -5.591455015886012507e-03 -5.483921607929606069e-03 -3.273609615826856764e-03 -1.222997345901663839e-03
4.466835921510165039e+12 -5.829353036959188973e-03 -5.674039471921511063e-03 -3.352896005995283004e-03 -1.240756213658033734e-03
5.011872336273330078e+12 -6.045037309837266587e-03 -5.840478089207911533e-03 -3.418481136411086543e-03 -1.254367361971814657e-03
5.623413251904179688e+12 -6.240429132754490155e-03 -5.985775232255495688e-03 -3.472507591361220954e-03 -1.264708147348873142e-03
6.309573444802715820e+12 -6.417275177957607046e-03 -6.112222847814477097e-03 -3.516523859424016459e-03 -1.272483245997483702e-03
7.079457843842271484e+12 -6.577134607153521141e-03 -6.221885375002348534e-03 -3.552335722582748191e-03 -1.278268715109997849e-03
7.943282347243829102e+12 -6.721556564977411267e-03 -6.316691583521945319e-03 -3.581223122998162568e-03 -1.282525170599149679e-03
8.912509381338605469e+12 -6.851890235651430898e-03 -6.398371359607564132e-03 -3.604370357782415643e-03 -1.285625130908671582e-03
